{"HiddenLayer":[9.482345442394411e-05,0.999852429277152,0.001044061381435632,0.9994015570315855,1],"InputLayer":[6.1,3,4.6,1.4,1],"OutputLayer":[0.007615847577507526,0.9878542781421275,0.010596085982186872],"WeightHidden":[[-7.506731324345088,-5.3938559773006824,9.564551934074297,13.917566857703575,-10.77199963834236],[9.93541783949343,8.135328220126665,-14.221287864122068,-16.37350192099877,12.14985052069149],[0.3255027074799082,2.052430391212083,-2.819288715177145,-1.455007005441363,-0.000698261885406777],[0.11079442559725688,-2.536282004899337,3.3059243511167384,0.2922113766170549,-1.2627859293146932],[-0.6751699432933647,0.8516820159015739,-0.1976065605269266,-0.6238658574989904,0.9279691610047911]],"WeightOutput":[[-2.323735952838365,1.28336634483863,4.14334518620483,-5.731309613803491,-0.42932105771059903],[-3.1029045177456074,4.281554940914176,-5.036420337346738,4.128482209854578,-4.002738510660936],[3.020192078222601,-4.480054299944962,-1.715037140651154,0.2529823357961342,-0.3086168309526356]],"ErrOutput":[0.007615847577507526,-0.012145721857872549,0.010596085982186872],"ErrHidden":[0.0006539265961920912,-0.001047736297247583,0.0007819106876729708,-0.0009034114169470691,0],"LastChangeHidden":[[-2.5048467429697414e-05,-1.0667970903975643e-05,-2.300765027378841e-05,-5.7495943890401755e-06,-4.10640815107185e-06],[-1.5141826571860822e-07,-8.003170839630877e-08,-1.004065219015009e-07,-3.474018869069235e-08,-2.4821128074249593e-08],[-1.6868276704972133e-06,-1.2415911221608476e-06,3.7846694126973795e-08,2.2452988059861243e-07,-3.9393823894589933e-07],[2.102482912139471e-06,1.4460257873841509e-06,2.754446079721667e-07,-1.2899541794967158e-07,4.620631466031833e-07],[0,0,0,0,0]],"LastChangeOutput":[[1.507747240319685e-09,1.2485094748924328e-05,-1.8365686929472764e-06,1.4330957479506652e-05,1.2487374211204117e-05],[8.211601928537546e-06,-3.348208975686294e-05,2.826097104122617e-06,-2.738748427765473e-05,-2.454439463982148e-05],[-8.304280207180733e-06,2.782913410275902e-05,8.977098266766897e-08,1.8712626676205876e-05,1.879021794947363e-05]],"Regression":false,"Rate1":0.25,"Rate2":0.1}
"Rate2":0.1}
Rate2":0.1}
