{"HiddenLayer":[0.9999978428207976,4.801598102722716e-07,0.9999996038746278,0.00022361408577853848,1],"InputLayer":[6.4,2.8,5.6,2.1,1],"OutputLayer":[7.258712132614721e-05,0.05124377271630307,0.9528813499263997],"WeightHidden":[[-1.050739627455429,-2.0085810290154527,4.366072796562978,0.6650037613813446,-0.45104681352133613],[7.689495189248887,7.139771193728233,-11.76105573452621,-13.660248178237826,10.795175532271038],[-8.831918217085416,-6.688352160564642,12.267135320600925,15.95502631867979,-12.208323724614127],[-0.916828572380471,-1.0158257257925813,0.38830550330161323,-0.9837605418772553,0.19804164473744001],[-0.7247823151928032,0.8527793915941113,-0.13771403519424452,0.41061865066714764,0.12968272813092052]],"WeightOutput":[[-8.895979940491829,3.514170227160271,-1.5107487850442338,0.232483296770294,0.8759989114803903],[8.270960859863374,3.075857056145074,-4.167717819958062,0.23890030594481193,-7.023697656357842],[0.5850845497888949,-4.2508174463587025,3.4566987741043818,0.8405083703993254,-1.0335635427652459]],"ErrOutput":[7.258712132614721e-05,0.05124377271630307,-0.04711865007360028],"ErrHidden":[0.019370783630647998,0.016655915816877833,-0.017693470624870162,-0.001182953491233348,0],"LastChangeHidden":[[-1.0193648669068384e-07,-4.026375697374378e-08,-8.12629317614595e-08,-2.6533148652645286e-08,-1.5897636945439327e-08],[-1.356142219491949e-06,-6.592187869557129e-07,-1.0186554866511305e-06,-3.3905649955575984e-07,-2.268734779938294e-07],[6.304796163815442e-07,3.0732485865559076e-07,4.733869511801976e-07,1.5732408338461606e-07,1.0565931078461594e-07],[-4.1966286480902287e-07,-1.8343214284480608e-07,-3.677090759978153e-07,-1.380105064740422e-07,-6.552934646498304e-08],[0,0,0,0,0]],"LastChangeOutput":[[2.962899358819605e-06,2.8818886922224304e-06,1.2601576651823152e-08,1.0356917570661802e-09,2.9216721921781745e-06],[0.0006176008184927439,-5.069550401290447e-06,0.0006228198570035177,1.374881765766336e-07,0.0006177002583189438],[-0.0005263414681247808,2.5194989908903546e-06,-0.0005288790337746342,-1.173464668973722e-07,-0.0005263349550777532]],"Regression":false,"Rate1":0.25,"Rate2":0.1}
.1}
Rate2":0.1}
